<?xml version="1.0"?>
<opencv_storage>
<stage18>
  <maxWeakCount>7</maxWeakCount>
  <stageThreshold>-1.0466504096984863e+00</stageThreshold>
  <weakClassifiers>
    <_>
      <internalNodes>
        0 -1 2448 -9.4526991248130798e-02</internalNodes>
      <leafValues>
        6.7259788513183594e-01 -4.6778711676597595e-01</leafValues></_>
    <_>
      <internalNodes>
        0 -1 154691 8.0863628536462784e-03</internalNodes>
      <leafValues>
        -2.8570285439491272e-01 6.1622720956802368e-01</leafValues></_>
    <_>
      <internalNodes>
        0 -1 90686 9.1997173149138689e-04</internalNodes>
      <leafValues>
        -6.2211573123931885e-01 3.3848261833190918e-01</leafValues></_>
    <_>
      <internalNodes>
        0 -1 64893 -4.8379987478256226e-02</internalNodes>
      <leafValues>
        -2.1568121016025543e-01 8.7811160087585449e-01</leafValues></_>
    <_>
      <internalNodes>
        0 -1 155955 -2.3318189778365195e-04</internalNodes>
      <leafValues>
        5.6508076190948486e-01 -3.3570891618728638e-01</leafValues></_>
    <_>
      <internalNodes>
        0 -1 159477 5.9597790241241455e-03</internalNodes>
      <leafValues>
        -4.1054153442382813e-01 4.1227087378501892e-01</leafValues></_>
    <_>
      <internalNodes>
        0 -1 63644 1.0423460043966770e-03</internalNodes>
      <leafValues>
        -4.9252375960350037e-01 3.1922060251235962e-01</leafValues></_></weakClassifiers></stage18>
</opencv_storage>
