<?xml version="1.0"?>
<opencv_storage>
<stage22>
  <maxWeakCount>11</maxWeakCount>
  <stageThreshold>-1.1237245798110962e+00</stageThreshold>
  <weakClassifiers>
    <_>
      <internalNodes>
        0 -1 149613 -7.4825980700552464e-03</internalNodes>
      <leafValues>
        6.7239403724670410e-01 -5.7186543941497803e-01</leafValues></_>
    <_>
      <internalNodes>
        0 -1 23266 1.3967026025056839e-02</internalNodes>
      <leafValues>
        -1.8890114128589630e-01 7.2480207681655884e-01</leafValues></_>
    <_>
      <internalNodes>
        0 -1 53434 1.4492562413215637e-01</internalNodes>
      <leafValues>
        -1.6414879262447357e-01 8.0885291099548340e-01</leafValues></_>
    <_>
      <internalNodes>
        0 -1 1103 -5.0188593566417694e-02</internalNodes>
      <leafValues>
        -6.1775332689285278e-01 3.5264644026756287e-01</leafValues></_>
    <_>
      <internalNodes>
        0 -1 133600 -1.0686038061976433e-02</internalNodes>
      <leafValues>
        -9.0384799242019653e-01 1.4542709290981293e-01</leafValues></_>
    <_>
      <internalNodes>
        0 -1 94222 -1.9180208910256624e-03</internalNodes>
      <leafValues>
        -1.9464725255966187e-01 8.1901550292968750e-01</leafValues></_>
    <_>
      <internalNodes>
        0 -1 67512 4.7500021755695343e-03</internalNodes>
      <leafValues>
        4.1827958822250366e-01 -4.3360331654548645e-01</leafValues></_>
    <_>
      <internalNodes>
        0 -1 89923 -2.2118382621556520e-03</internalNodes>
      <leafValues>
        -6.7569065093994141e-01 2.2131519019603729e-01</leafValues></_>
    <_>
      <internalNodes>
        0 -1 9497 1.7216630280017853e-02</internalNodes>
      <leafValues>
        -2.0044684410095215e-01 8.2585144042968750e-01</leafValues></_>
    <_>
      <internalNodes>
        0 -1 35067 -9.9679771810770035e-03</internalNodes>
      <leafValues>
        2.2343173623085022e-01 -8.5987883806228638e-01</leafValues></_>
    <_>
      <internalNodes>
        0 -1 158183 -6.4405989833176136e-03</internalNodes>
      <leafValues>
        5.3302919864654541e-01 -3.1293228268623352e-01</leafValues></_></weakClassifiers></stage22>
</opencv_storage>
