<?xml version="1.0"?>
<opencv_storage>
<stage19>
  <maxWeakCount>6</maxWeakCount>
  <stageThreshold>-5.5248707532882690e-01</stageThreshold>
  <weakClassifiers>
    <_>
      <internalNodes>
        0 -1 100922 -9.8266199231147766e-02</internalNodes>
      <leafValues>
        7.3142856359481812e-01 -2.2400000691413879e-01</leafValues></_>
    <_>
      <internalNodes>
        0 -1 40084 -1.3539187610149384e-01</internalNodes>
      <leafValues>
        3.0485826730728149e-01 -8.2970070838928223e-01</leafValues></_>
    <_>
      <internalNodes>
        0 -1 15863 -2.7858859300613403e-01</internalNodes>
      <leafValues>
        -6.8096375465393066e-01 3.2564496994018555e-01</leafValues></_>
    <_>
      <internalNodes>
        0 -1 85282 -3.8630929775536060e-03</internalNodes>
      <leafValues>
        -3.0420255661010742e-01 7.5691187381744385e-01</leafValues></_>
    <_>
      <internalNodes>
        0 -1 61560 3.3423714339733124e-03</internalNodes>
      <leafValues>
        -9.6086961030960083e-01 1.7827580869197845e-01</leafValues></_>
    <_>
      <internalNodes>
        0 -1 61583 -2.4562567472457886e-01</internalNodes>
      <leafValues>
        3.0149534344673157e-01 -6.1793065071105957e-01</leafValues></_></weakClassifiers></stage19>
</opencv_storage>
