<?xml version="1.0"?>
<opencv_storage>
<stage13>
  <maxWeakCount>6</maxWeakCount>
  <stageThreshold>-5.5361044406890869e-01</stageThreshold>
  <weakClassifiers>
    <_>
      <internalNodes>
        0 -1 123601 -4.7622933983802795e-02</internalNodes>
      <leafValues>
        8.3198708295822144e-01 -1.9793459773063660e-01</leafValues></_>
    <_>
      <internalNodes>
        0 -1 35893 -5.3579360246658325e-04</internalNodes>
      <leafValues>
        -5.8505922555923462e-01 5.0335234403610229e-01</leafValues></_>
    <_>
      <internalNodes>
        0 -1 155278 -2.4169908836483955e-02</internalNodes>
      <leafValues>
        2.9408770799636841e-01 -7.3462998867034912e-01</leafValues></_>
    <_>
      <internalNodes>
        0 -1 151725 4.2362790554761887e-03</internalNodes>
      <leafValues>
        -5.8381134271621704e-01 3.5176202654838562e-01</leafValues></_>
    <_>
      <internalNodes>
        0 -1 151395 -1.3952022418379784e-02</internalNodes>
      <leafValues>
        -7.1741741895675659e-01 2.8464657068252563e-01</leafValues></_>
    <_>
      <internalNodes>
        0 -1 71448 -1.6183581203222275e-02</internalNodes>
      <leafValues>
        3.2760480046272278e-01 -5.8976387977600098e-01</leafValues></_></weakClassifiers></stage13>
</opencv_storage>
