<?xml version="1.0"?>
<opencv_storage>
<stage7>
  <maxWeakCount>5</maxWeakCount>
  <stageThreshold>-9.8559874296188354e-01</stageThreshold>
  <weakClassifiers>
    <_>
      <internalNodes>
        0 -1 99083 -1.4048168063163757e-01</internalNodes>
      <leafValues>
        8.9069426059722900e-01 -3.8814532756805420e-01</leafValues></_>
    <_>
      <internalNodes>
        0 -1 126529 5.0102315843105316e-02</internalNodes>
      <leafValues>
        -5.3458315134048462e-01 6.8602085113525391e-01</leafValues></_>
    <_>
      <internalNodes>
        0 -1 32830 6.3524529337882996e-02</internalNodes>
      <leafValues>
        -7.2080945968627930e-01 4.7269716858863831e-01</leafValues></_>
    <_>
      <internalNodes>
        0 -1 114050 -3.2538868486881256e-02</internalNodes>
      <leafValues>
        -8.3572483062744141e-01 3.2544922828674316e-01</leafValues></_>
    <_>
      <internalNodes>
        0 -1 61100 1.0586041957139969e-01</internalNodes>
      <leafValues>
        -8.5885024070739746e-01 3.0015739798545837e-01</leafValues></_></weakClassifiers></stage7>
</opencv_storage>
