<?xml version="1.0"?>
<opencv_storage>
<stage15>
  <maxWeakCount>6</maxWeakCount>
  <stageThreshold>-1.0583316087722778e+00</stageThreshold>
  <weakClassifiers>
    <_>
      <internalNodes>
        0 -1 42779 2.5800408329814672e-03</internalNodes>
      <leafValues>
        -5.8709675073623657e-01 6.5393257141113281e-01</leafValues></_>
    <_>
      <internalNodes>
        0 -1 7034 -1.3370083272457123e-01</internalNodes>
      <leafValues>
        -5.3042179346084595e-01 4.7918233275413513e-01</leafValues></_>
    <_>
      <internalNodes>
        0 -1 63452 -1.9028414040803909e-02</internalNodes>
      <leafValues>
        7.6868259906768799e-01 -3.0168607831001282e-01</leafValues></_>
    <_>
      <internalNodes>
        0 -1 90229 -6.6811065189540386e-03</internalNodes>
      <leafValues>
        4.8401257395744324e-01 -4.2562487721443176e-01</leafValues></_>
    <_>
      <internalNodes>
        0 -1 12599 4.1117926593869925e-04</internalNodes>
      <leafValues>
        -7.0442217588424683e-01 2.3347970843315125e-01</leafValues></_>
    <_>
      <internalNodes>
        0 -1 39221 -1.9794280827045441e-01</internalNodes>
      <leafValues>
        2.3490926623344421e-01 -7.5971341133117676e-01</leafValues></_></weakClassifiers></stage15>
</opencv_storage>
